digraph Tree {
node [shape=box] ;
0 [label="X[0] <= 5.45\ngini = 0.49\nsamples = 70\nvalue = [40, 30]"] ;
1 [label="X[1] <= 2.45\ngini = 0.102\nsamples = 37\nvalue = [35, 2]"] ;
0 -> 1 [labeldistance=2.5, labelangle=45, headlabel="True"] ;
2 [label="gini = 0.0\nsamples = 1\nvalue = [0, 1]"] ;
1 -> 2 ;
3 [label="X[0] <= 5.35\ngini = 0.054\nsamples = 36\nvalue = [35, 1]"] ;
1 -> 3 ;
4 [label="gini = 0.0\nsamples = 32\nvalue = [32, 0]"] ;
3 -> 4 ;
5 [label="X[1] <= 3.2\ngini = 0.375\nsamples = 4\nvalue = [3, 1]"] ;
3 -> 5 ;
6 [label="gini = 0.0\nsamples = 1\nvalue = [0, 1]"] ;
5 -> 6 ;
7 [label="gini = 0.0\nsamples = 3\nvalue = [3, 0]"] ;
5 -> 7 ;
8 [label="X[1] <= 3.45\ngini = 0.257\nsamples = 33\nvalue = [5, 28]"] ;
0 -> 8 [labeldistance=2.5, labelangle=-45, headlabel="False"] ;
9 [label="gini = 0.0\nsamples = 28\nvalue = [0, 28]"] ;
8 -> 9 ;
10 [label="gini = 0.0\nsamples = 5\nvalue = [5, 0]"] ;
8 -> 10 ;
}